-4.383756546363369
-3.4061175641364994
-0.005281717522634557
-0.21072968622156107
-0.5913459237067533
-0.22301538696880285
0.21744811764216482
0.19238793099104898
11.403190390960583
2.3975062962452265
1.0146210793704498
4.179398592905024
-0.003224172040135075
3.196159456453316
0.21133769442335443
-0.8109989126731403
-0.6017242820755044
0.9912214158207866
0.0004221374671559283
1.8058281521371582
2.188993808227871
0.011447237098396141
-0.7909840927940721
4.2050249433890174
3.0090085594926435
-0.40683727859174335
0.19877109774481352
-1.2093576943425908
-2.2026788807962605
-4.394696445332618
-0.6069166075172532
-2.2039675352685593
-2.606871727001196
-1.2084520564149872
0.9932875386916318
0.199873354010811
-0.011173103486352778
0.0023441569781709214
0.016598021771098707
-0.19257955839422666
0.19808164447638382
-0.008876289640848356
-0.007471582937508325
0.016924546010277458
0.0005080775477602897
0.39363004353430653
-0.19809084515332534
0.021002551364788423
-4.598798410475186
0.20617203109707422
1.0030017031995582
0.7964775015350649
0.5885748180197786
-0.003493427224128775
0.19791105766625222
-1.7941337680881784
0.008389834138745049
0.009311020813035573
-0.19714412674745743
0.008851411642707281
-0.007543979409966539
1.6125286815523334
0.2051292982041801
-7.202980928351026
-1.7951148185346255
1.3992442828697893
-0.5886837061254862
-0.1848018318357782
2.821855754065332
-0.21396496335488113
-2.014441138054296
-0.8050446586294645
3.2016003706944782
3.208761689211162
-0.19684365052758562
3.77977798784176
-1.4030620401262837
-1.5917202535739277
-0.9976990526463562
0.8076201118031203
0.3977767185738964
-3.0020075806893014
4.401865613909884
-1.7958994835279176
